digraph Tree {
node [shape=box, style="filled, rounded", color="black", fontname=helvetica] ;
edge [fontname=helvetica] ;
0 [label="bldgname_Biodesign B <= 0.5\nmse = 2e-06\nsamples = 3916\nvalue = 0.0024935", fillcolor="#f6d4bc"] ;
1 [label="KW <= 113.4099998\nmse = 1.3e-06\nsamples = 3537\nvalue = 0.0022229", fillcolor="#f7dac5"] ;
0 -> 1 [labeldistance=2.5, labelangle=45, headlabel="True"] ;
2 [label="bldgname_Psychology North <= 0.5\nmse = 1e-07\nsamples = 794\nvalue = 0.0011213", fillcolor="#fcf2eb"] ;
1 -> 2 ;
3 [label="KW <= 101.8199997\nmse = 1e-07\nsamples = 430\nvalue = 0.0009195", fillcolor="#fdf6f1"] ;
2 -> 3 ;
4 [label="AirTempSq <= 1254.723999\nmse = 0.0\nsamples = 304\nvalue = 0.0007956", fillcolor="#fef9f6"] ;
3 -> 4 ;
5 [label="AirTempXAbsHum <= 154.5440979\nmse = 0.0\nsamples = 184\nvalue = 0.0007022", fillcolor="#fefbf9"] ;
4 -> 5 ;
6 [label="DSW North <= 4.4362522\nmse = 0.0\nsamples = 67\nvalue = 0.0005928", fillcolor="#fffdfc"] ;
5 -> 6 ;
7 [label="mse = 0.0\nsamples = 31\nvalue = 0.0005189", fillcolor="#ffffff"] ;
6 -> 7 ;
8 [label="mse = 0.0\nsamples = 36\nvalue = 0.0006524", fillcolor="#fefcfa"] ;
6 -> 8 ;
9 [label="Day <= 15.0\nmse = 0.0\nsamples = 117\nvalue = 0.0007619", fillcolor="#fefaf7"] ;
5 -> 9 ;
10 [label="mse = 0.0\nsamples = 35\nvalue = 0.0008601", fillcolor="#fdf8f3"] ;
9 -> 10 ;
11 [label="mse = 0.0\nsamples = 82\nvalue = 0.0007184", fillcolor="#fefbf8"] ;
9 -> 11 ;
12 [label="KW <= 88.2949982\nmse = 0.0\nsamples = 120\nvalue = 0.0009429", fillcolor="#fdf6f1"] ;
4 -> 12 ;
13 [label="DSW West <= 640.2356567\nmse = 0.0\nsamples = 43\nvalue = 0.0008557", fillcolor="#fef8f4"] ;
12 -> 13 ;
14 [label="mse = 0.0\nsamples = 40\nvalue = 0.0008362", fillcolor="#fef8f4"] ;
13 -> 14 ;
15 [label="mse = 0.0\nsamples = 3\nvalue = 0.0011084", fillcolor="#fcf2eb"] ;
13 -> 15 ;
16 [label="AirTempSq <= 1491.1658936\nmse = 0.0\nsamples = 77\nvalue = 0.000996", fillcolor="#fdf5ef"] ;
12 -> 16 ;
17 [label="mse = 0.0\nsamples = 44\nvalue = 0.0009515", fillcolor="#fdf6f0"] ;
16 -> 17 ;
18 [label="mse = 0.0\nsamples = 33\nvalue = 0.0010498", fillcolor="#fdf4ed"] ;
16 -> 18 ;
19 [label="Hour <= 5.5\nmse = 1e-07\nsamples = 126\nvalue = 0.0012257", fillcolor="#fcf0e7"] ;
3 -> 19 ;
20 [label="AbsHumSq <= 29.7735977\nmse = 0.0\nsamples = 10\nvalue = 0.0019801", fillcolor="#f9e0ce"] ;
19 -> 20 ;
21 [label="AirTempSq <= 579.683609\nmse = 0.0\nsamples = 3\nvalue = 0.0016745", fillcolor="#fae6d8"] ;
20 -> 21 ;
22 [label="mse = 0.0\nsamples = 1\nvalue = 0.0018011", fillcolor="#f9e3d4"] ;
21 -> 22 ;
23 [label="mse = 0.0\nsamples = 2\nvalue = 0.0016113", fillcolor="#fae7da"] ;
21 -> 23 ;
24 [label="AirTempSq <= 719.335907\nmse = 0.0\nsamples = 7\nvalue = 0.002082", fillcolor="#f8ddca"] ;
20 -> 24 ;
25 [label="mse = 0.0\nsamples = 3\nvalue = 0.0019514", fillcolor="#f9e0cf"] ;
24 -> 25 ;
26 [label="mse = 0.0\nsamples = 4\nvalue = 0.0021865", fillcolor="#f8dbc7"] ;
24 -> 26 ;
27 [label="Day <= 24.0\nmse = 1e-07\nsamples = 116\nvalue = 0.0011756", fillcolor="#fcf1e9"] ;
19 -> 27 ;
28 [label="AirTempSq <= 1099.0857544\nmse = 0.0\nsamples = 57\nvalue = 0.0009954", fillcolor="#fdf5ef"] ;
27 -> 28 ;
29 [label="mse = 0.0\nsamples = 12\nvalue = 0.0007992", fillcolor="#fef9f6"] ;
28 -> 29 ;
30 [label="mse = 0.0\nsamples = 45\nvalue = 0.0010558", fillcolor="#fdf3ed"] ;
28 -> 30 ;
31 [label="Day <= 25.5\nmse = 1e-07\nsamples = 59\nvalue = 0.0013352", fillcolor="#fbede3"] ;
27 -> 31 ;
32 [label="mse = 0.0\nsamples = 22\nvalue = 0.0015403", fillcolor="#fae9dc"] ;
31 -> 32 ;
33 [label="mse = 0.0\nsamples = 37\nvalue = 0.0011949", fillcolor="#fcf0e8"] ;
31 -> 33 ;
34 [label="AirTempSq <= 1241.2008057\nmse = 1e-07\nsamples = 364\nvalue = 0.0013572", fillcolor="#fbede3"] ;
2 -> 34 ;
35 [label="KW <= 63.0950012\nmse = 0.0\nsamples = 173\nvalue = 0.0011261", fillcolor="#fcf2ea"] ;
34 -> 35 ;
36 [label="Hour <= 5.5\nmse = 0.0\nsamples = 34\nvalue = 0.0008892", fillcolor="#fdf7f2"] ;
35 -> 36 ;
37 [label="KW <= 55.0999985\nmse = 0.0\nsamples = 12\nvalue = 0.0007146", fillcolor="#fefbf8"] ;
36 -> 37 ;
38 [label="mse = 0.0\nsamples = 4\nvalue = 0.0005739", fillcolor="#fffefd"] ;
37 -> 38 ;
39 [label="mse = 0.0\nsamples = 8\nvalue = 0.0007762", fillcolor="#fef9f6"] ;
37 -> 39 ;
40 [label="AirTempSq <= 648.4681091\nmse = 0.0\nsamples = 22\nvalue = 0.0010186", fillcolor="#fdf4ee"] ;
36 -> 40 ;
41 [label="mse = 0.0\nsamples = 6\nvalue = 0.0007585", fillcolor="#fefaf7"] ;
40 -> 41 ;
42 [label="mse = 0.0\nsamples = 16\nvalue = 0.0011091", fillcolor="#fcf2eb"] ;
40 -> 42 ;
43 [label="Month <= 5.5\nmse = 0.0\nsamples = 139\nvalue = 0.0011859", fillcolor="#fcf1e8"] ;
35 -> 43 ;
44 [label="AbsHumSq <= 28.8632936\nmse = 0.0\nsamples = 68\nvalue = 0.0010981", fillcolor="#fcf3eb"] ;
43 -> 44 ;
45 [label="mse = 0.0\nsamples = 46\nvalue = 0.0011553", fillcolor="#fcf1e9"] ;
44 -> 45 ;
46 [label="mse = 0.0\nsamples = 22\nvalue = 0.0009627", fillcolor="#fdf5f0"] ;
44 -> 46 ;
47 [label="AirTempSq <= 1046.7844849\nmse = 0.0\nsamples = 71\nvalue = 0.0012643", fillcolor="#fcefe6"] ;
43 -> 47 ;
48 [label="mse = 0.0\nsamples = 46\nvalue = 0.0012219", fillcolor="#fcf0e7"] ;
47 -> 48 ;
49 [label="mse = 0.0\nsamples = 25\nvalue = 0.001336", fillcolor="#fbede3"] ;
47 -> 49 ;
50 [label="AirTempSq <= 1385.7267456\nmse = 0.0\nsamples = 191\nvalue = 0.0015603", fillcolor="#fae9dc"] ;
34 -> 50 ;
51 [label="KW <= 74.0200005\nmse = 0.0\nsamples = 54\nvalue = 0.0014303", fillcolor="#fbebe0"] ;
50 -> 51 ;
52 [label="AirTempSq <= 1331.100647\nmse = 0.0\nsamples = 24\nvalue = 0.001374", fillcolor="#fbede2"] ;
51 -> 52 ;
53 [label="mse = 0.0\nsamples = 14\nvalue = 0.0013489", fillcolor="#fbede3"] ;
52 -> 53 ;
54 [label="mse = 0.0\nsamples = 10\nvalue = 0.0014184", fillcolor="#fbece1"] ;
52 -> 54 ;
55 [label="DSW East <= 73.8656178\nmse = 0.0\nsamples = 30\nvalue = 0.0014797", fillcolor="#fbeade"] ;
51 -> 55 ;
56 [label="mse = 0.0\nsamples = 15\nvalue = 0.001556", fillcolor="#fae9dc"] ;
55 -> 56 ;
57 [label="mse = 0.0\nsamples = 15\nvalue = 0.00142", fillcolor="#fbece0"] ;
55 -> 57 ;
58 [label="AirTempSq <= 1465.1542358\nmse = 0.0\nsamples = 137\nvalue = 0.0016042", fillcolor="#fae8da"] ;
50 -> 58 ;
59 [label="KW <= 79.2449989\nmse = 0.0\nsamples = 49\nvalue = 0.0015435", fillcolor="#fae9dc"] ;
58 -> 59 ;
60 [label="mse = 0.0\nsamples = 32\nvalue = 0.0014926", fillcolor="#fbeade"] ;
59 -> 60 ;
61 [label="mse = 0.0\nsamples = 17\nvalue = 0.0016322", fillcolor="#fae7d9"] ;
59 -> 61 ;
62 [label="Shade North <= 0.9212428\nmse = 0.0\nsamples = 88\nvalue = 0.0016403", fillcolor="#fae7d9"] ;
58 -> 62 ;
63 [label="mse = 0.0\nsamples = 30\nvalue = 0.0016901", fillcolor="#fae6d7"] ;
62 -> 63 ;
64 [label="mse = 0.0\nsamples = 58\nvalue = 0.0016167", fillcolor="#fae7da"] ;
62 -> 64 ;
65 [label="HTmmBTU <= -0.005\nmse = 1.2e-06\nsamples = 2743\nvalue = 0.0025404", fillcolor="#f6d3bb"] ;
1 -> 65 ;
66 [label="AirTempSq <= 1415.0722656\nmse = 0.0\nsamples = 322\nvalue = 0.00098", fillcolor="#fdf5ef"] ;
65 -> 66 ;
67 [label="AbsHumSq <= 49.8612766\nmse = 0.0\nsamples = 177\nvalue = 0.0009093", fillcolor="#fdf7f2"] ;
66 -> 67 ;
68 [label="AirTempSq <= 588.008667\nmse = 0.0\nsamples = 144\nvalue = 0.0008777", fillcolor="#fdf7f3"] ;
67 -> 68 ;
69 [label="Shade East <= 0.8596781\nmse = 0.0\nsamples = 8\nvalue = 0.0006475", fillcolor="#fefcfb"] ;
68 -> 69 ;
70 [label="mse = 0.0\nsamples = 3\nvalue = 0.0007037", fillcolor="#fefbf9"] ;
69 -> 70 ;
71 [label="mse = 0.0\nsamples = 5\nvalue = 0.0006194", fillcolor="#fffdfc"] ;
69 -> 71 ;
72 [label="DSW North <= 39.9572582\nmse = 0.0\nsamples = 136\nvalue = 0.0008874", fillcolor="#fdf7f3"] ;
68 -> 72 ;
73 [label="mse = 0.0\nsamples = 110\nvalue = 0.0008655", fillcolor="#fdf8f3"] ;
72 -> 73 ;
74 [label="mse = 0.0\nsamples = 26\nvalue = 0.0009919", fillcolor="#fdf5ef"] ;
72 -> 74 ;
75 [label="AbsHumSq <= 50.3655891\nmse = 1e-07\nsamples = 33\nvalue = 0.0010663", fillcolor="#fdf3ec"] ;
67 -> 75 ;
76 [label="AirTempSq <= 1094.8223267\nmse = 1e-07\nsamples = 2\nvalue = 0.0015356", fillcolor="#fae9dd"] ;
75 -> 76 ;
77 [label="mse = 0.0\nsamples = 1\nvalue = 0.0011164", fillcolor="#fcf2eb"] ;
76 -> 77 ;
78 [label="mse = 0.0\nsamples = 1\nvalue = 0.0017452", fillcolor="#fae5d5"] ;
76 -> 78 ;
79 [label="AirTempXAbsHum <= 257.2349091\nmse = 0.0\nsamples = 31\nvalue = 0.0010328", fillcolor="#fdf4ee"] ;
75 -> 79 ;
80 [label="mse = 0.0\nsamples = 24\nvalue = 0.0009893", fillcolor="#fdf5ef"] ;
79 -> 80 ;
81 [label="mse = 1e-07\nsamples = 7\nvalue = 0.0012501", fillcolor="#fcefe6"] ;
79 -> 81 ;
82 [label="AbsHumSq <= 17.8100595\nmse = 0.0\nsamples = 145\nvalue = 0.0010649", fillcolor="#fdf3ed"] ;
66 -> 82 ;
83 [label="DSW South <= 137.4870377\nmse = 0.0\nsamples = 62\nvalue = 0.0009855", fillcolor="#fdf5ef"] ;
82 -> 83 ;
84 [label="KW <= 158.2850037\nmse = 0.0\nsamples = 48\nvalue = 0.0010013", fillcolor="#fdf5ef"] ;
83 -> 84 ;
85 [label="mse = 0.0\nsamples = 13\nvalue = 0.0009672", fillcolor="#fdf5f0"] ;
84 -> 85 ;
86 [label="mse = 0.0\nsamples = 35\nvalue = 0.0010119", fillcolor="#fdf4ee"] ;
84 -> 86 ;
87 [label="DSW West <= 31.676003\nmse = 0.0\nsamples = 14\nvalue = 0.0009256", fillcolor="#fdf6f1"] ;
83 -> 87 ;
88 [label="mse = 0.0\nsamples = 4\nvalue = 0.0008779", fillcolor="#fdf7f3"] ;
87 -> 88 ;
89 [label="mse = 0.0\nsamples = 10\nvalue = 0.0009495", fillcolor="#fdf6f0"] ;
87 -> 89 ;
90 [label="DSW Top <= 798.1009216\nmse = 0.0\nsamples = 83\nvalue = 0.0011306", fillcolor="#fcf2ea"] ;
82 -> 90 ;
91 [label="AirTempSq <= 1454.5244751\nmse = 0.0\nsamples = 52\nvalue = 0.0011651", fillcolor="#fcf1e9"] ;
90 -> 91 ;
92 [label="mse = 0.0\nsamples = 2\nvalue = 0.0014901", fillcolor="#fbeade"] ;
91 -> 92 ;
93 [label="mse = 0.0\nsamples = 50\nvalue = 0.0011564", fillcolor="#fcf1e9"] ;
91 -> 93 ;
94 [label="AirTempSq <= 1555.8916016\nmse = 0.0\nsamples = 31\nvalue = 0.0010717", fillcolor="#fdf3ec"] ;
90 -> 94 ;
95 [label="mse = 0.0\nsamples = 12\nvalue = 0.0010234", fillcolor="#fdf4ee"] ;
94 -> 95 ;
96 [label="mse = 0.0\nsamples = 19\nvalue = 0.0011039", fillcolor="#fcf2eb"] ;
94 -> 96 ;
97 [label="HTmmBTU <= 0.025\nmse = 1e-06\nsamples = 2421\nvalue = 0.0027409", fillcolor="#f5cfb4"] ;
65 -> 97 ;
98 [label="AirTempSq <= 1115.269043\nmse = 1e-06\nsamples = 377\nvalue = 0.0039865", fillcolor="#f0b48a"] ;
97 -> 98 ;
99 [label="AirTempSq <= 819.4646606\nmse = 3e-07\nsamples = 122\nvalue = 0.0028925", fillcolor="#f4ccaf"] ;
98 -> 99 ;
100 [label="KW <= 341.8450012\nmse = 2e-07\nsamples = 38\nvalue = 0.0023096", fillcolor="#f7d8c2"] ;
99 -> 100 ;
101 [label="mse = 1e-07\nsamples = 36\nvalue = 0.002362", fillcolor="#f7d7c1"] ;
100 -> 101 ;
102 [label="mse = 0.0\nsamples = 2\nvalue = 0.0006609", fillcolor="#fefcfa"] ;
100 -> 102 ;
103 [label="KW <= 345.6650085\nmse = 1e-07\nsamples = 84\nvalue = 0.0032031", fillcolor="#f3c5a4"] ;
99 -> 103 ;
104 [label="mse = 1e-07\nsamples = 83\nvalue = 0.0032233", fillcolor="#f3c5a3"] ;
103 -> 104 ;
105 [label="mse = 0.0\nsamples = 1\nvalue = 0.0007572", fillcolor="#fefaf7"] ;
103 -> 105 ;
106 [label="AirTempSq <= 1395.5338135\nmse = 4e-07\nsamples = 255\nvalue = 0.0045124", fillcolor="#eda978"] ;
98 -> 106 ;
107 [label="bldgname_ISTB 2 <= 0.5\nmse = 4e-07\nsamples = 104\nvalue = 0.0039742", fillcolor="#f0b58a"] ;
106 -> 107 ;
108 [label="mse = 0.0\nsamples = 11\nvalue = 0.0024474", fillcolor="#f6d5be"] ;
107 -> 108 ;
109 [label="mse = 1e-07\nsamples = 93\nvalue = 0.0041427", fillcolor="#efb184"] ;
107 -> 109 ;
110 [label="AirTempSq <= 1543.6401367\nmse = 1e-07\nsamples = 151\nvalue = 0.0048925", fillcolor="#eca16b"] ;
106 -> 110 ;
111 [label="mse = 1e-07\nsamples = 84\nvalue = 0.0046965", fillcolor="#eca572"] ;
110 -> 111 ;
112 [label="mse = 1e-07\nsamples = 67\nvalue = 0.0051303", fillcolor="#eb9c63"] ;
110 -> 112 ;
113 [label="bldgname_Schwada COB <= 0.5\nmse = 7e-07\nsamples = 2044\nvalue = 0.0025198", fillcolor="#f6d4bb"] ;
97 -> 113 ;
114 [label="AirTempSq <= 1038.6032715\nmse = 6e-07\nsamples = 1689\nvalue = 0.0027271", fillcolor="#f5cfb4"] ;
113 -> 114 ;
115 [label="KW <= 158.8199997\nmse = 3e-07\nsamples = 527\nvalue = 0.0021148", fillcolor="#f8ddc9"] ;
114 -> 115 ;
116 [label="mse = 1e-07\nsamples = 108\nvalue = 0.0027491", fillcolor="#f5cfb4"] ;
115 -> 116 ;
117 [label="mse = 2e-07\nsamples = 419\nvalue = 0.0019576", fillcolor="#f9e0ce"] ;
115 -> 117 ;
118 [label="HTmmBTU <= 0.205\nmse = 5e-07\nsamples = 1162\nvalue = 0.0030073", fillcolor="#f4c9ab"] ;
114 -> 118 ;
119 [label="mse = 2e-07\nsamples = 375\nvalue = 0.0025412", fillcolor="#f6d3bb"] ;
118 -> 119 ;
120 [label="mse = 5e-07\nsamples = 787\nvalue = 0.0032313", fillcolor="#f3c5a3"] ;
118 -> 120 ;
121 [label="AirTempSq <= 1130.4017944\nmse = 1e-07\nsamples = 355\nvalue = 0.0015059", fillcolor="#fbeade"] ;
113 -> 121 ;
122 [label="AirTempSq <= 770.2443237\nmse = 0.0\nsamples = 140\nvalue = 0.0012771", fillcolor="#fcefe5"] ;
121 -> 122 ;
123 [label="mse = 0.0\nsamples = 42\nvalue = 0.0011162", fillcolor="#fcf2eb"] ;
122 -> 123 ;
124 [label="mse = 0.0\nsamples = 98\nvalue = 0.0013538", fillcolor="#fbede3"] ;
122 -> 124 ;
125 [label="AirTempSq <= 1474.5418701\nmse = 0.0\nsamples = 215\nvalue = 0.0016579", fillcolor="#fae6d8"] ;
121 -> 125 ;
126 [label="mse = 0.0\nsamples = 112\nvalue = 0.0015836", fillcolor="#fae8db"] ;
125 -> 126 ;
127 [label="mse = 0.0\nsamples = 103\nvalue = 0.0017413", fillcolor="#fae5d6"] ;
125 -> 127 ;
128 [label="AirTempSq <= 1111.9268188\nmse = 1.3e-06\nsamples = 379\nvalue = 0.0049824", fillcolor="#eb9f68"] ;
0 -> 128 [labeldistance=2.5, labelangle=-45, headlabel="False"] ;
129 [label="AirTempSq <= 854.2160339\nmse = 7e-07\nsamples = 148\nvalue = 0.0038405", fillcolor="#f0b78f"] ;
128 -> 129 ;
130 [label="AirTempSq <= 719.2324524\nmse = 5e-07\nsamples = 65\nvalue = 0.0030211", fillcolor="#f4c9aa"] ;
129 -> 130 ;
131 [label="AirTempSq <= 615.5551147\nmse = 2e-07\nsamples = 23\nvalue = 0.002402", fillcolor="#f7d6bf"] ;
130 -> 131 ;
132 [label="KW <= 514.0999908\nmse = 0.0\nsamples = 9\nvalue = 0.0020351", fillcolor="#f8decc"] ;
131 -> 132 ;
133 [label="Shade East <= 0.7114054\nmse = 0.0\nsamples = 8\nvalue = 0.001992", fillcolor="#f8dfcd"] ;
132 -> 133 ;
134 [label="mse = 0.0\nsamples = 2\nvalue = 0.0022241", fillcolor="#f7dac5"] ;
133 -> 134 ;
135 [label="mse = 0.0\nsamples = 6\nvalue = 0.0019563", fillcolor="#f9e0ce"] ;
133 -> 135 ;
136 [label="mse = -0.0\nsamples = 1\nvalue = 0.0026812", fillcolor="#f5d0b6"] ;
132 -> 136 ;
137 [label="DSW Top <= 30.5614071\nmse = 0.0\nsamples = 14\nvalue = 0.0027111", fillcolor="#f5d0b5"] ;
131 -> 137 ;
138 [label="HTmmBTU <= 0.64\nmse = 0.0\nsamples = 6\nvalue = 0.0024925", fillcolor="#f6d4bc"] ;
137 -> 138 ;
139 [label="mse = 0.0\nsamples = 4\nvalue = 0.0025214", fillcolor="#f6d4bb"] ;
138 -> 139 ;
140 [label="mse = 0.0\nsamples = 2\nvalue = 0.0024058", fillcolor="#f7d6bf"] ;
138 -> 140 ;
141 [label="Minute <= 22.5\nmse = 0.0\nsamples = 8\nvalue = 0.00287", fillcolor="#f5ccaf"] ;
137 -> 141 ;
142 [label="mse = 0.0\nsamples = 4\nvalue = 0.0027879", fillcolor="#f5ceb2"] ;
141 -> 142 ;
143 [label="mse = 0.0\nsamples = 4\nvalue = 0.0029169", fillcolor="#f4cbae"] ;
141 -> 143 ;
144 [label="HTmmBTU <= 0.635\nmse = 3e-07\nsamples = 42\nvalue = 0.0033947", fillcolor="#f2c19e"] ;
130 -> 144 ;
145 [label="AirTempXAbsHum <= 172.9116669\nmse = 1e-07\nsamples = 36\nvalue = 0.0032262", fillcolor="#f3c5a3"] ;
144 -> 145 ;
146 [label="Shade North <= 0.7788175\nmse = 1e-07\nsamples = 17\nvalue = 0.0029479", fillcolor="#f4cbad"] ;
145 -> 146 ;
147 [label="mse = 0.0\nsamples = 5\nvalue = 0.0032857", fillcolor="#f3c3a1"] ;
146 -> 147 ;
148 [label="mse = 0.0\nsamples = 12\nvalue = 0.0028272", fillcolor="#f5cdb1"] ;
146 -> 148 ;
149 [label="DSW Top <= 110.7067947\nmse = 1e-07\nsamples = 19\nvalue = 0.0034296", fillcolor="#f2c09c"] ;
145 -> 149 ;
150 [label="mse = 0.0\nsamples = 10\nvalue = 0.0032592", fillcolor="#f3c4a2"] ;
149 -> 150 ;
151 [label="mse = 1e-07\nsamples = 9\nvalue = 0.0035999", fillcolor="#f1bd97"] ;
149 -> 151 ;
152 [label="DSW East <= 163.1015015\nmse = 4e-07\nsamples = 6\nvalue = 0.0039779", fillcolor="#f0b48a"] ;
144 -> 152 ;
153 [label="mse = 0.0\nsamples = 1\nvalue = 0.0050383", fillcolor="#eb9e66"] ;
152 -> 153 ;
154 [label="Minute <= 22.5\nmse = 0.0\nsamples = 5\nvalue = 0.0036598", fillcolor="#f1bb95"] ;
152 -> 154 ;
155 [label="mse = 0.0\nsamples = 3\nvalue = 0.003542", fillcolor="#f2be99"] ;
154 -> 155 ;
156 [label="mse = 0.0\nsamples = 2\nvalue = 0.0038365", fillcolor="#f0b88f"] ;
154 -> 156 ;
157 [label="AirTempSq <= 973.7690735\nmse = 1e-07\nsamples = 83\nvalue = 0.004352", fillcolor="#eeac7d"] ;
129 -> 157 ;
158 [label="KW <= 491.719986\nmse = 1e-07\nsamples = 32\nvalue = 0.0040552", fillcolor="#efb387"] ;
157 -> 158 ;
159 [label="KW <= 482.9499969\nmse = 0.0\nsamples = 5\nvalue = 0.0034654", fillcolor="#f2c09b"] ;
158 -> 159 ;
160 [label="HTmmBTU <= 0.5\nmse = 0.0\nsamples = 4\nvalue = 0.0034208", fillcolor="#f2c09d"] ;
159 -> 160 ;
161 [label="mse = 0.0\nsamples = 3\nvalue = 0.0034523", fillcolor="#f2c09c"] ;
160 -> 161 ;
162 [label="mse = 0.0\nsamples = 1\nvalue = 0.0032629", fillcolor="#f3c4a2"] ;
160 -> 162 ;
163 [label="mse = -0.0\nsamples = 1\nvalue = 0.003733", fillcolor="#f1ba92"] ;
159 -> 163 ;
164 [label="DSW Top <= 884.6062317\nmse = 0.0\nsamples = 27\nvalue = 0.0041276", fillcolor="#efb185"] ;
158 -> 164 ;
165 [label="AirTempSq <= 951.1698608\nmse = 0.0\nsamples = 19\nvalue = 0.0040358", fillcolor="#efb388"] ;
164 -> 165 ;
166 [label="mse = 0.0\nsamples = 15\nvalue = 0.0040059", fillcolor="#f0b489"] ;
165 -> 166 ;
167 [label="mse = 0.0\nsamples = 4\nvalue = 0.0041905", fillcolor="#efb083"] ;
165 -> 167 ;
168 [label="Minute <= 7.5\nmse = 0.0\nsamples = 8\nvalue = 0.0042975", fillcolor="#eeae7f"] ;
164 -> 168 ;
169 [label="mse = 0.0\nsamples = 1\nvalue = 0.0041144", fillcolor="#efb285"] ;
168 -> 169 ;
170 [label="mse = 0.0\nsamples = 7\nvalue = 0.0043298", fillcolor="#eead7e"] ;
168 -> 170 ;
171 [label="DSW Top <= 16.2599506\nmse = 1e-07\nsamples = 51\nvalue = 0.0045755", fillcolor="#eda876"] ;
157 -> 171 ;
172 [label="AirTempSq <= 1086.5436401\nmse = 0.0\nsamples = 8\nvalue = 0.0043273", fillcolor="#eead7e"] ;
171 -> 172 ;
173 [label="Minute <= 22.5\nmse = 0.0\nsamples = 4\nvalue = 0.0042161", fillcolor="#efaf82"] ;
172 -> 173 ;
174 [label="mse = 0.0\nsamples = 1\nvalue = 0.0043671", fillcolor="#eeac7d"] ;
173 -> 174 ;
175 [label="mse = 0.0\nsamples = 3\nvalue = 0.0041406", fillcolor="#efb184"] ;
173 -> 175 ;
176 [label="Minute <= 37.5\nmse = 0.0\nsamples = 4\nvalue = 0.0044015", fillcolor="#eeab7c"] ;
172 -> 176 ;
177 [label="mse = 0.0\nsamples = 3\nvalue = 0.0044587", fillcolor="#edaa7a"] ;
176 -> 177 ;
178 [label="mse = -0.0\nsamples = 1\nvalue = 0.004287", fillcolor="#eeae7f"] ;
176 -> 178 ;
179 [label="AbsHumSq <= 28.0680046\nmse = 0.0\nsamples = 43\nvalue = 0.0046286", fillcolor="#eda674"] ;
171 -> 179 ;
180 [label="AbsHumSq <= 17.5985489\nmse = 0.0\nsamples = 17\nvalue = 0.0047782", fillcolor="#eca36f"] ;
179 -> 180 ;
181 [label="mse = 0.0\nsamples = 1\nvalue = 0.0053997", fillcolor="#e9965a"] ;
180 -> 181 ;
182 [label="mse = 0.0\nsamples = 16\nvalue = 0.0047551", fillcolor="#eca470"] ;
180 -> 182 ;
183 [label="AbsHumSq <= 62.321682\nmse = 0.0\nsamples = 26\nvalue = 0.004529", fillcolor="#eda977"] ;
179 -> 183 ;
184 [label="mse = 0.0\nsamples = 20\nvalue = 0.0045633", fillcolor="#eda876"] ;
183 -> 184 ;
185 [label="mse = 0.0\nsamples = 6\nvalue = 0.0043832", fillcolor="#eeac7c"] ;
183 -> 185 ;
186 [label="AirTempSq <= 1326.753418\nmse = 2e-07\nsamples = 231\nvalue = 0.0057457", fillcolor="#e88e4e"] ;
128 -> 186 ;
187 [label="KW <= 574.9750061\nmse = 1e-07\nsamples = 62\nvalue = 0.0051141", fillcolor="#eb9c63"] ;
186 -> 187 ;
188 [label="AirTempSq <= 1178.7792358\nmse = 0.0\nsamples = 36\nvalue = 0.0049816", fillcolor="#eb9f68"] ;
187 -> 188 ;
189 [label="KW <= 521.8850098\nmse = 0.0\nsamples = 18\nvalue = 0.0049039", fillcolor="#eca16b"] ;
188 -> 189 ;
190 [label="Minute <= 30.0\nmse = 0.0\nsamples = 7\nvalue = 0.004812", fillcolor="#eca36e"] ;
189 -> 190 ;
191 [label="mse = 0.0\nsamples = 5\nvalue = 0.0047718", fillcolor="#eca36f"] ;
190 -> 191 ;
192 [label="mse = 0.0\nsamples = 2\nvalue = 0.0049327", fillcolor="#eba06a"] ;
190 -> 192 ;
193 [label="AirTempSq <= 1175.1105957\nmse = 0.0\nsamples = 11\nvalue = 0.0049406", fillcolor="#eba069"] ;
189 -> 193 ;
194 [label="mse = 0.0\nsamples = 10\nvalue = 0.0049525", fillcolor="#eb9f69"] ;
193 -> 194 ;
195 [label="mse = -0.0\nsamples = 1\nvalue = 0.0047157", fillcolor="#eca571"] ;
193 -> 195 ;
196 [label="AirTempXAbsHum <= 138.2534714\nmse = 0.0\nsamples = 18\nvalue = 0.0050542", fillcolor="#eb9d65"] ;
188 -> 196 ;
197 [label="KW <= 515.7450104\nmse = 0.0\nsamples = 4\nvalue = 0.0048349", fillcolor="#eca26d"] ;
196 -> 197 ;
198 [label="mse = 0.0\nsamples = 2\nvalue = 0.0049292", fillcolor="#eba06a"] ;
197 -> 198 ;
199 [label="mse = 0.0\nsamples = 2\nvalue = 0.0046935", fillcolor="#eca572"] ;
197 -> 199 ;
200 [label="Minute <= 37.5\nmse = 0.0\nsamples = 14\nvalue = 0.005098", fillcolor="#eb9c64"] ;
196 -> 200 ;
201 [label="mse = 0.0\nsamples = 12\nvalue = 0.0050539", fillcolor="#eb9d65"] ;
200 -> 201 ;
202 [label="mse = 0.0\nsamples = 2\nvalue = 0.0052377", fillcolor="#ea995f"] ;
200 -> 202 ;
203 [label="AirTempSq <= 1195.34021\nmse = 1e-07\nsamples = 26\nvalue = 0.0053402", fillcolor="#ea975c"] ;
187 -> 203 ;
204 [label="DSW Top <= 872.0553589\nmse = 0.0\nsamples = 11\nvalue = 0.0051171", fillcolor="#eb9c63"] ;
203 -> 204 ;
205 [label="AirTempSq <= 1156.0320435\nmse = 0.0\nsamples = 6\nvalue = 0.0050055", fillcolor="#eb9e67"] ;
204 -> 205 ;
206 [label="mse = 0.0\nsamples = 3\nvalue = 0.0049358", fillcolor="#eba069"] ;
205 -> 206 ;
207 [label="mse = 0.0\nsamples = 3\nvalue = 0.0050612", fillcolor="#eb9d65"] ;
205 -> 207 ;
208 [label="KW <= 647.2200012\nmse = 0.0\nsamples = 5\nvalue = 0.0052846", fillcolor="#ea985e"] ;
204 -> 208 ;
209 [label="mse = 0.0\nsamples = 3\nvalue = 0.0052305", fillcolor="#ea9a60"] ;
208 -> 209 ;
210 [label="mse = 0.0\nsamples = 2\nvalue = 0.0053928", fillcolor="#e9965a"] ;
208 -> 210 ;
211 [label="Shade East <= 0.193236\nmse = 0.0\nsamples = 15\nvalue = 0.0055163", fillcolor="#e99356"] ;
203 -> 211 ;
212 [label="AirTempXAbsHum <= 209.0079269\nmse = 0.0\nsamples = 6\nvalue = 0.0056827", fillcolor="#e89050"] ;
211 -> 212 ;
213 [label="mse = 0.0\nsamples = 4\nvalue = 0.0057586", fillcolor="#e88e4e"] ;
212 -> 213 ;
214 [label="mse = 0.0\nsamples = 2\nvalue = 0.0055815", fillcolor="#e89254"] ;
212 -> 214 ;
215 [label="AbsHumSq <= 46.7120972\nmse = 0.0\nsamples = 9\nvalue = 0.0054192", fillcolor="#e99559"] ;
211 -> 215 ;
216 [label="mse = 0.0\nsamples = 7\nvalue = 0.0054539", fillcolor="#e99558"] ;
215 -> 216 ;
217 [label="mse = 0.0\nsamples = 2\nvalue = 0.0052459", fillcolor="#ea995f"] ;
215 -> 217 ;
218 [label="DSW Top <= 47.6824684\nmse = 1e-07\nsamples = 169\nvalue = 0.0059609", fillcolor="#e78a47"] ;
186 -> 218 ;
219 [label="AirTempSq <= 1473.3165894\nmse = 1e-07\nsamples = 31\nvalue = 0.00552", fillcolor="#e99356"] ;
218 -> 219 ;
220 [label="KW <= 484.1149902\nmse = 0.0\nsamples = 19\nvalue = 0.0053347", fillcolor="#ea975c"] ;
219 -> 220 ;
221 [label="AbsHumSq <= 25.0091362\nmse = 0.0\nsamples = 4\nvalue = 0.0051027", fillcolor="#eb9c64"] ;
220 -> 221 ;
222 [label="mse = 0.0\nsamples = 3\nvalue = 0.0051659", fillcolor="#ea9b62"] ;
221 -> 222 ;
223 [label="mse = -0.0\nsamples = 1\nvalue = 0.0048497", fillcolor="#eca26c"] ;
221 -> 223 ;
224 [label="Hour <= 19.5\nmse = 0.0\nsamples = 15\nvalue = 0.005412", fillcolor="#e99659"] ;
220 -> 224 ;
225 [label="mse = 0.0\nsamples = 8\nvalue = 0.005482", fillcolor="#e99457"] ;
224 -> 225 ;
226 [label="mse = 0.0\nsamples = 7\nvalue = 0.005332", fillcolor="#ea975c"] ;
224 -> 226 ;
227 [label="KW <= 517.0700073\nmse = 0.0\nsamples = 12\nvalue = 0.0057151", fillcolor="#e88f4f"] ;
219 -> 227 ;
228 [label="AirTempSq <= 1509.0108643\nmse = 0.0\nsamples = 9\nvalue = 0.0056047", fillcolor="#e89153"] ;
227 -> 228 ;
229 [label="mse = 0.0\nsamples = 4\nvalue = 0.0054293", fillcolor="#e99559"] ;
228 -> 229 ;
230 [label="mse = 0.0\nsamples = 5\nvalue = 0.0056827", fillcolor="#e89050"] ;
228 -> 230 ;
231 [label="KW <= 543.1950073\nmse = 0.0\nsamples = 3\nvalue = 0.0059544", fillcolor="#e78a47"] ;
227 -> 231 ;
232 [label="mse = 0.0\nsamples = 2\nvalue = 0.0059238", fillcolor="#e78b48"] ;
231 -> 232 ;
233 [label="mse = 0.0\nsamples = 1\nvalue = 0.0060155", fillcolor="#e78945"] ;
231 -> 233 ;
234 [label="AirTempSq <= 1414.0609131\nmse = 1e-07\nsamples = 138\nvalue = 0.0060353", fillcolor="#e68844"] ;
218 -> 234 ;
235 [label="KW <= 560.8349915\nmse = 0.0\nsamples = 49\nvalue = 0.0057993", fillcolor="#e88d4c"] ;
234 -> 235 ;
236 [label="AbsHumSq <= 15.4168558\nmse = 0.0\nsamples = 12\nvalue = 0.005632", fillcolor="#e89152"] ;
235 -> 236 ;
237 [label="mse = 0.0\nsamples = 9\nvalue = 0.005708", fillcolor="#e88f4f"] ;
236 -> 237 ;
238 [label="mse = 0.0\nsamples = 3\nvalue = 0.0054801", fillcolor="#e99457"] ;
236 -> 238 ;
239 [label="AirTempXAbsHum <= 228.8845978\nmse = 0.0\nsamples = 37\nvalue = 0.0058471", fillcolor="#e78c4b"] ;
235 -> 239 ;
240 [label="mse = 0.0\nsamples = 33\nvalue = 0.0058762", fillcolor="#e78c4a"] ;
239 -> 240 ;
241 [label="mse = 0.0\nsamples = 4\nvalue = 0.0055711", fillcolor="#e99254"] ;
239 -> 241 ;
242 [label="AirTempSq <= 1604.5582275\nmse = 0.0\nsamples = 89\nvalue = 0.0061628", fillcolor="#e68540"] ;
234 -> 242 ;
243 [label="Day <= 23.0\nmse = 0.0\nsamples = 62\nvalue = 0.0061137", fillcolor="#e68642"] ;
242 -> 243 ;
244 [label="mse = 0.0\nsamples = 37\nvalue = 0.006177", fillcolor="#e6853f"] ;
243 -> 244 ;
245 [label="mse = 0.0\nsamples = 25\nvalue = 0.0060188", fillcolor="#e78945"] ;
243 -> 245 ;
246 [label="AirTempXAbsHum <= 192.0458755\nmse = 0.0\nsamples = 27\nvalue = 0.0062976", fillcolor="#e5833b"] ;
242 -> 246 ;
247 [label="mse = 0.0\nsamples = 14\nvalue = 0.0062198", fillcolor="#e6843e"] ;
246 -> 247 ;
248 [label="mse = 0.0\nsamples = 13\nvalue = 0.006368", fillcolor="#e58139"] ;
246 -> 248 ;
}